{
  "type": "NeuralNetwork",
  "sizes": [
    11,
    5,
    1
  ],
  "layers": [
    {
      "weights": [],
      "biases": []
    },
    {
      "weights": [
        [
          -1.0417706966400146,
          10.293676376342773,
          -3.2371363639831543,
          1.8125383853912354,
          1.8604592084884644,
          11.095732688903809,
          -0.16965335607528687,
          0.43931668996810913,
          1.1073962450027466,
          -4.583489894866943,
          -7.044461727142334
        ],
        [
          0.07079453766345978,
          5.0111165046691895,
          -1.3580073118209839,
          -2.498764753341675,
          -6.920714855194092,
          8.862192153930664,
          -8.625001907348633,
          -1.8548513650894165,
          8.70433235168457,
          3.179246664047241,
          21.124040603637695
        ],
        [
          -1.598233938217163,
          -0.15159296989440918,
          0.10132721066474915,
          0.09422242641448975,
          -0.09498937427997589,
          -0.2987390458583832,
          -0.39651748538017273,
          -0.1890513151884079,
          -0.6716813445091248,
          -0.139417827129364,
          -0.1415952891111374
        ],
        [
          -1.5635918378829956,
          -0.3905361592769623,
          -0.19851653277873993,
          0.1010059043765068,
          -0.13378165662288666,
          -0.04185190796852112,
          -0.5663875341415405,
          -0.33563604950904846,
          -0.4529876112937927,
          -0.0640500858426094,
          0.2672971189022064
        ],
        [
          1.2159154415130615,
          8.924724578857422,
          2.694678783416748,
          0.5655269026756287,
          2.7076189517974854,
          -23.62063217163086,
          -10.378302574157715,
          0.11815430223941803,
          2.2751216888427734,
          1.2180225849151611,
          1.7749491930007935
        ]
      ],
      "biases": [
        -1.2666168212890625,
        -6.789167881011963,
        -1.898801326751709,
        -2.0490076541900635,
        -3.535689353942871
      ]
    },
    {
      "weights": [
        [
          -4.960627555847168,
          7.343985557556152,
          -0.5731380581855774,
          -0.3838904798030853,
          -10.943522453308105
        ]
      ],
      "biases": [
        0.8440185189247131
      ]
    }
  ],
  "inputLookup": {
    "fixed acidity": 0,
    "volatile acidity": 1,
    "citric acid": 2,
    "residual sugar": 3,
    "chlorides": 4,
    "free sulfur dioxide": 5,
    "total sulfur dioxide": 6,
    "density": 7,
    "pH": 8,
    "sulphates": 9,
    "alcohol": 10
  },
  "inputLookupLength": 11,
  "outputLookup": {
    "quality": 0
  },
  "outputLookupLength": 1,
  "options": {
    "inputSize": 0,
    "outputSize": 0,
    "binaryThresh": 0.5
  },
  "trainOpts": {
    "activation": "sigmoid",
    "iterations": 20000,
    "errorThresh": 0.005,
    "log": false,
    "logPeriod": 10,
    "leakyReluAlpha": 0.01,
    "learningRate": 0.3,
    "momentum": 0.1,
    "callbackPeriod": 10,
    "timeout": "Infinity",
    "beta1": 0.9,
    "beta2": 0.999,
    "epsilon": 1e-8
  }
}